0.20498529,-0.1784269,-0.3070568,0.023698986,-0.0516122,-0.14931946,-0.019005984,0.32973891,-0.18615046,0.30504614,0.16651765,0.010555213,0.20890729,-0.058710422,-0.12952681,0.030958908,-0.08386579,-0.21428378,0.22315565,-0.27597356,0.0097872615,-0.17008823,-0.12250009,-0.09780115,-0.04663742,0.3484823,0.2916853,-0.064574555,-0.21216267,-0.20058075,-0.19001664,0.003952573,-0.27083215,0.06503899,0.19718416,0.2734367,0.2611351,0.17026417,-0.067214385,0.27152434
0.16858682,0.19222936,-0.16822474,0.043120444,0.067188814,0.20621775,0.21296823,0.06459131,0.15593915,-0.3347705,-0.27803162,-0.10912144,-0.015963813,0.086876236,-0.011892662,-0.26586816,-0.22597641,0.10735839,-0.08962527,0.022533197,0.21942103,-0.3322819,0.18232423,0.23246552,0.19592777,0.19957761,0.13319428,-0.27875277,0.26211053,0.19376954,0.11270605,0.05902661,0.120172344,-0.022039229,0.036576003,-0.026963392,0.27150854,0.08193187,-0.26707512,-0.26775056
-0.0381548,0.10605222,-0.3312017,-0.29685578,-0.071587406,0.3188175,0.0990051,0.017606901,-0.020628527,-0.13360429,-0.061020795,-0.009376005,0.29543427,0.17688851,-0.19369256,-0.29868343,-0.22601956,0.28937373,0.20677112,-0.31095237,-0.055098116,0.30533174,-0.21452609,0.17641905,-0.007836567,0.27016428,0.27113724,0.23463066,-0.16742477,0.32216647,0.18001723,-0.19372831,-0.26385677,-0.06889635,0.31109142,-0.043963585,0.1393443,-0.21113932,0.35207647,0.29900998
0.14749643,0.13985702,0.21118553,-0.277475,0.34093928,0.09249437,0.2246576,0.15476818,-0.045603022,-0.03323749,-0.022523083,0.28594965,0.10892836,0.2600556,-0.053948037,-0.07954283,-0.26019773,-0.25318336,0.32046074,-0.23542286,-0.30997416,0.02619285,-0.28043538,0.12531006,0.17595254,-0.24829686,0.29184818,0.10941062,0.07655704,-0.24797371,0.23311178,-0.08946392,0.20227246,-0.1709379,-0.13529778,0.35474414,0.119178176,0.2849601,-0.026357464,-0.29923066
0.16084933,0.32810044,0.19710395,-0.29257992,0.29688185,0.2584032,0.028048545,0.2312567,-0.28657404,0.24339151,0.3248408,0.023998475,-0.1835775,-0.012648263,0.29875544,0.28906205,0.26380792,0.27835375,0.13053964,0.29513803,-0.04464987,-0.04396411,0.020878226,-0.27551827,-0.12249452,0.33018965,-0.2823944,-0.19966695,0.23011921,-0.32640347,0.06571214,-0.22129633,-0.30416283,0.10698788,-0.2805287,-0.23977907,0.05406886,-0.0021574902,-0.3140639,0.22218935
-0.32249668,0.12316838,0.2196262,-0.25900578,0.110416226,0.1357563,-0.27613887,-0.32319006,-0.29321688,-0.21106583,0.15601446,-0.2951712,-0.042573065,-0.3403316,-0.3008096,-0.3101372,-0.3039283,0.18042606,-0.31167355,-0.31775177,0.0474661,-0.15806992,-0.0044111013,0.022881579,-0.1403382,0.3248163,0.0966144,0.021905882,0.15633483,-0.048442397,0.10368971,0.020162616,-0.23635365,0.12253417,-0.211246,0.06366104,-0.0021825256,0.28585848,-0.25227335,0.28480333
-0.18058923,0.28133044,0.23197927,0.08759707,0.28832093,0.2963787,0.042577833,0.02249346,0.17917709,0.18742535,0.059530903,0.045229815,0.19489741,-0.09396562,0.18340626,-0.25178015,0.06421974,0.075379506,-0.054506335,-0.118036695,-0.13375953,-0.21023093,-0.3330787,0.30889082,0.27410045,-0.22011709,0.22107232,-0.008805845,-0.14531872,-0.23733225,0.16668445,-0.181523,0.26536146,-0.28136075,-0.27862394,0.16036619,0.21788478,-0.13844006,-0.0689585,0.060468245
-0.26152602,0.111976884,0.28084162,0.05685523,0.31914806,0.13127397,-0.23269376,-0.033885222,-0.014286862,0.07660196,0.24090086,-0.3485194,-0.0074943467,-0.027471565,0.11783521,0.014466341,-0.17143701,0.0024551859,0.12493057,0.007125242,0.18637669,-0.1867924,-0.28955215,-0.08441504,-0.1260543,-0.3193032,-0.0131015,-0.015290045,-0.2222156,0.07503591,0.020026047,0.030555988,0.29424098,0.051251326,0.3342387,-0.12921973,-0.1842212,-0.08967571,0.13438399,0.23312002
0.04977563,0.011150491,-0.025568794,0.19980514,0.33769432,0.0840759,0.00056165457,0.06663286,0.15527171,-0.35109758,0.14949988,0.30070338,0.10406526,0.09928958,-0.054445636,0.1444489,0.02247219,-0.004575436,0.16610272,0.27733985,0.027258277,-0.09771152,-0.23285048,-0.29183328,-0.15329476,-0.25983208,0.099593766,0.18244909,0.35054693,0.27334708,-0.09888649,-0.22048277,0.25925156,-0.117032945,0.01852141,-0.27086526,-0.2843279,0.036218364,0.3156884,-0.012219771
0.20871982,-0.18468703,0.045452677,-0.1283688,0.26755378,-0.097939454,-0.33028138,-0.17750813,0.13254158,0.028424859,-0.20827952,-0.257957,0.010338529,0.16025087,0.18371814,0.09091061,-0.16520245,0.32019103,-0.04184104,0.21504256,-0.0073974133,-0.3308625,-0.26200077,0.21161558,-0.21820801,-0.022478431,-0.024012718,0.25712928,-0.2759742,0.18748662,-0.34147584,0.08143206,0.1146953,-0.18012373,0.08435996,-0.19215736,-0.02794643,-0.20574932,-0.16629082,-0.34503844
-0.14413321,0.3391708,-0.1794599,-0.0093410015,-0.22457555,0.14039393,-0.04909855,0.025726411,-0.07443187,-0.3480169,-0.15697947,-0.24548012,0.19458432,-0.16745062,-0.0065435176,-0.125862,0.20882122,0.20836498,0.310415,0.12832847,-0.031868786,0.2787272,0.010637283,-0.1526819,0.32051125,-0.29614735,-0.09238184,0.328663,-0.15188317,0.0016330527,-0.3289332,0.19557655,-0.08321121,0.06773158,0.2547332,0.2196522,-0.117619365,-0.07419412,0.34159842,0.21582976
0.07289749,-0.2970657,-0.18610787,-0.26443037,-0.28243777,-0.33224353,-0.12219769,0.24114989,-0.11477768,-0.16553068,0.2308627,-0.17520411,0.17729007,-0.016779933,0.0639432,-0.09273713,-0.22753975,-0.12233797,0.061800547,0.15653545,-0.17377597,-0.058026113,-0.09459667,0.0928235,0.13691711,0.085814506,-0.20958851,-0.056923877,0.056477603,-0.09069944,-0.21544206,0.06214945,-0.20921208,-0.03222888,-0.025820307,-0.15836865,-0.03816217,0.15567924,-0.016469596,0.1572694
-0.07010528
-0.0098260725
-0.009275815
0.0
0.015106348
-0.0060042315
0.0
-0.007996996
-0.0018497197
-0.015340131
0.012922593
-0.0147289615
-0.0142336935
-0.012832942
-0.015143815
-0.008921659
0.021155095
0.006665665
0.0100803785
-0.0140332
0.0
-0.03880158
0.0
-0.01733059
0.008110032
0.011007223
-0.0126467645
0.012468032
0.021395085
-0.0016232014
-0.012884504
-0.023531174
0.008287302
-0.006543162
0.00813297
0.055216406
-0.008735758
-0.010484534
0.013685738
-0.015448933
-0.030388983,-0.023517381,-0.15023525,-0.08399374,-0.27100545
-0.3390366,0.19329357,0.042903207,-0.302077,-0.21954946
0.10824011,0.04373641,-0.03860896,-0.2242758,-0.028589135
0.019834727,0.03180009,0.30495542,0.034771472,0.23259586
0.05940484,-0.15913092,0.31975442,-0.27366564,0.1718679
0.26795936,0.14062814,0.3258518,-0.06211421,0.3147534
-0.25289166,-0.3076735,0.35441357,0.30688524,-0.29696825
-0.29724312,0.30150458,0.26141557,-0.02513825,0.12253723
-0.07370318,0.06567529,0.23063976,-0.08387652,-0.17557728
0.27799994,-0.03254336,0.024727182,0.03782404,0.29949313
0.16003403,-0.24798334,0.10518084,-0.14303035,0.11499756
-0.104805626,0.3444684,-0.3021249,-0.35414022,0.11951554
0.33867475,-0.121514246,-0.19457132,0.06988451,-0.19662069
-0.0048635695,0.20421067,-0.09953082,-0.2130736,0.008793681
-0.061510645,0.09977059,-0.32349128,-0.21668127,-0.044309605
0.16242005,-0.05520145,0.056110613,0.13971847,-0.15932386
-0.27543953,-0.30848616,-0.22301921,-0.12505487,-0.06425433
-0.309976,-0.317334,-0.33924338,-0.07873702,-0.299734
0.036710072,-0.04598941,0.1377088,-0.026388776,-0.033479273
0.22252195,0.2149422,-0.1734396,-0.01769209,-0.09260332
-0.31422335,-0.22672711,0.34345818,0.0436984,0.13655609
0.036029577,0.21983926,0.05832504,0.16076045,0.16694179
-0.1922715,-0.14879605,-0.178248,0.22368419,0.09654078
-0.052687187,0.070144534,-0.3185638,0.1181293,-0.12598978
-0.13330828,-0.32289803,-0.24431176,-0.36324716,0.0864677
-0.15521407,0.009706106,0.17087315,0.29116336,0.17542136
0.11622219,0.19855893,-0.33639622,0.1634997,-0.17833787
-0.07225782,-0.22015871,-0.31354553,-0.273745,0.26992804
0.032161772,-0.34877437,0.29244912,0.22701612,0.074460775
-0.19040033,-0.19787139,0.10997923,-0.1647131,-0.17218363
0.29389217,0.1520428,-0.31413856,-0.35236758,-0.30979738
-0.21573702,0.269599,0.13707294,-0.21854812,-0.23124291
-0.18335108,-0.22181988,0.29100263,-0.1449862,0.25622022
-0.24721475,0.04178481,-0.3113406,0.013204395,0.0721004
-0.11177476,-0.042546295,0.081966996,0.34395757,0.09903708
0.42590898,-0.23907056,-0.20701483,-0.124785036,-0.16511963
-0.1925262,0.28324652,0.34858915,0.2051791,0.073711686
-0.30621597,0.22646332,0.26827937,0.0957489,-0.033739362
-0.1686917,-0.09946935,-0.062042847,-0.01149565,-0.26102537
0.042198192,0.10676096,0.040503554,0.12415705,-0.14516304
-0.009912112
-0.011849803
0.014381417
-0.02056265
0.08163487
