0.1625309,-0.19817913,-0.14524771,0.12617792,-0.43606922,-0.32576445,0.39324546,0.08864403,-0.5869628,0.3280744
0.09494811,0.1454359,-0.42334047,-0.14894256,0.376341,-0.13350697,-0.31776863,-0.5325655,-0.026731404,-0.41854897
-0.07672644,-0.27650598,0.11148316,-0.33325836,-0.1337007,-0.0020782684,-0.48236352,-0.34727967,-0.16773774,-0.4150311
0.14927825,0.009075903,0.31520277,-0.15887259,0.12913357,-0.15031864,-0.012048006,-0.21043286,-0.037874267,-0.3356364
-0.27146384,0.36159268,0.20087774,-0.04306426,0.18406701,0.5449226,-0.43175864,-0.46298674,0.38890547,0.027217152
0.19977677,0.56344444,-0.01563875,0.4067586,0.36187166,-0.07051528,0.16737992,-0.51839906,-0.14342897,-0.1785252
0.25584397,-0.19057861,0.5180682,-0.12745616,-0.57815456,-0.37463266,-0.23979944,-0.29399392,-0.53879726,-0.10072899
0.14660576,0.27350488,-0.50147766,0.23038891,-0.4243152,0.30724695,0.13051659,-0.36382258,0.070202544,-0.13514753
-0.30327466,0.26306117,-0.47724667,0.11220115,-0.17292354,0.37713242,0.11113089,-0.27650985,0.19026758,-0.33066282
0.07153663,-0.0036036894,0.38332063,-0.30937752,-0.0065150405,-0.3768672,-0.26940513,0.24578202,-0.18050109,0.3748466
-0.07086315
0.084511
0.030919245
-0.038948532
-0.07765616
0.01522213
0.0
0.0
-0.06227662
-0.019258518
-0.33766752,-0.48727313,0.08143783,0.40468854,-0.006312572
0.12428269,0.18174943,-0.37851548,-0.39035812,0.10584243
-0.4947409,-0.07821409,-0.2901211,0.16578712,0.43455994
0.032816723,0.21596082,0.29846027,0.35005206,0.24069645
-0.43688977,0.15990001,0.15945949,0.37822,-0.3700112
0.16677041,-0.5521483,0.4309193,-0.47964817,-0.35991386
-0.012231588,-0.15790519,0.1962263,0.25714332,-0.05765617
-0.16818872,-0.073800266,0.36271906,-0.1521182,-0.31148785
0.20965792,0.44960278,-0.36085382,0.5423179,0.52563983
0.24465655,0.5400813,0.11383903,0.5297487,0.33999515
-0.09558508
-0.0825467
0.11469175
-0.08651098
0.021484274
