0.008631766,0.27146876,0.26510334,0.080021076,-0.01737921,0.28745794,-0.2538064,0.14298086,-0.041707005,-0.035100706,0.49341416,0.19392118,0.21092676,0.25409767,0.3058849,0.27662644,0.13907924,0.06753829,0.16664997,-0.05310706,-0.21363184,-0.38807914,0.21699993,-0.2800148,0.29876408,0.2833963,-0.16626741,-0.32261887,0.18450701,0.22889934
-0.03284496,-0.11327556,0.04197644,0.25136802,0.27157107,-0.26378033,0.36469358,0.15936497,-0.17035079,0.14527752,-0.2606196,-0.110652104,-0.11437083,0.03627174,-0.10861441,-0.010875953,0.28547546,-0.16526258,-0.21957584,-0.36205003,0.105443366,0.29250002,-0.34498093,0.3111183,-0.05703248,-0.1987737,-0.22071224,0.09016311,-0.23448284,-0.27824405
0.118150145,-0.21420278,0.11668232,-0.26889768,-0.017795922,0.09291767,0.32945386,0.30007815,-0.08297843,0.022830991,-0.051353827,0.2424374,0.017454898,0.20354794,0.21043411,-0.21928424,0.14334133,-0.25853235,0.19515721,-0.057123967,-0.11523512,0.30751264,-0.01384498,0.27339518,0.37263888,0.2994817,0.1826088,0.22617346,0.14997879,0.27426454
0.12118173,-0.12086514,-0.0652057,-0.27673587,0.35553032,-0.17225946,-0.2217283,0.28393248,0.08389899,-0.22223492,0.15097637,0.06635759,0.2409575,-0.0155771645,-0.35936296,0.124244615,0.16086648,-0.19473672,-0.06307689,-0.24996248,-0.19453704,-0.113746524,-0.24538979,0.38556498,-0.2507033,0.23622055,0.036579125,0.2078307,0.23793703,0.32859895
-0.03229922,0.027956039,0.30650565,0.20334199,0.12606199,0.06519575,0.20162185,-0.2157745,0.30311838,-0.392162,-0.10503362,0.12855539,0.33938614,-0.19131367,-0.31975773,-0.1882126,0.030919291,0.20585716,0.23443268,0.28011912,-0.049616408,0.027144372,0.045426104,-0.12330126,-0.15627165,0.38321513,0.111002594,0.14632542,-0.106268905,-0.2300346
-0.047528416,-0.12762654,-0.28960013,-0.0465422,0.4217941,-0.11260827,0.0056962958,0.18449432,0.18525663,0.2923792,-0.4473751,0.16470855,0.27366638,0.27117464,0.19020829,0.03707333,-0.0047695693,0.3223359,-0.078292444,-0.30450168,-0.08994966,0.11889725,0.017575802,0.22470833,0.21199125,-0.2779088,0.040557276,0.0026780649,-0.23129797,-0.2774492
-0.09499362,-0.3652979,-0.21880826,-0.23326561,-0.046218295,-0.26060128,0.24452572,0.16380307,-0.12992774,0.16241252,0.09782034,-0.22365813,-0.21715723,-0.08426095,-0.38694257,0.064808495,0.17414412,-0.28167045,-0.019249277,0.013053307,0.23910204,0.30032092,-0.082952596,-0.19864503,0.21432298,0.15809166,-0.027725905,0.29408434,0.28550327,0.12797719
0.063167065,-0.2541531,-0.21435003,0.03659364,-0.2999795,-0.2607822,0.317756,0.096610546,0.1421603,-0.0856348,0.03199656,-0.23271133,-0.08983254,-0.22528078,-0.025271915,-0.27934128,-0.15267274,-0.08699232,-0.043504376,-0.12649745,0.35796112,-0.30151287,-0.029351681,-0.137566,0.059479978,-0.12970704,0.18014659,0.12890957,-0.21091105,-0.34095702
-0.34932333,-0.304798,-0.25413066,0.1536245,0.010779589,0.2155276,0.30253732,0.10046549,0.08383976,-0.13722853,0.1961781,0.040380016,-0.041102745,-0.07958277,0.085672416,0.19338055,-0.33013797,-0.11025339,-0.053456724,-0.10533844,0.3528161,-0.059233326,0.29228985,0.21274868,-0.30268374,-0.2747697,0.32736528,-0.05384136,0.19685179,-0.09749616
-0.28305578,-0.3606652,0.2424864,0.19509989,0.049166087,0.26682848,0.3564224,0.31827402,-0.24301438,-0.3260122,0.39108178,0.07809125,0.009378571,0.18285172,-0.14473172,-0.13552555,0.38473743,-0.31337082,-0.030981278,0.10843964,-0.038937986,0.1311885,-0.055841066,0.16537054,-0.16617751,-0.05121428,0.23514676,0.27606782,0.27103972,0.02633961
-0.079812855,0.13268673,-0.13324125,0.213797,0.24122499,0.11701248,-0.024789333,-0.09504816,-0.2645817,0.04501615,-0.07557251,0.19507796,-0.02212243,0.23784584,-0.28921857,-0.0012770281,0.15400414,-0.122080535,0.15925258,-0.05265586,0.020877235,0.08460595,-0.26100725,0.13633299,-0.2247259,-0.1887536,-0.32595518,-0.08013806,-0.39958116,0.19347091
-0.36566484,0.35052407,0.2521999,0.3012039,-0.020349862,-0.0126506295,0.2730205,-0.0630508,-0.08715016,0.050443664,-0.3697326,0.28295293,0.15457958,0.32042545,0.21603176,-0.3204551,-0.25887814,0.12718856,-0.2170089,0.2865384,-0.08538918,-0.32590926,0.15340053,0.38911325,0.09434723,-0.08883667,0.29324847,-0.2586471,-0.23060286,0.063998416
0.040477306,0.31243676,-0.10735349,-0.1800094,-0.3313562,0.26043227,0.3922167,-0.299031,-0.25376981,-0.17372051,-0.20343418,-0.03954937,-0.29378825,0.019990474,0.29484946,-0.28477913,-0.31969848,-0.23972178,0.31447735,0.2790855,0.29734346,0.19044666,0.18030459,0.19204718,-0.07633364,0.03629934,-0.19903812,0.063338935,-0.10731911,0.21043313
0.0
0.0
-0.025710022
-0.060738612
0.01580941
-0.08041178
0.04357853
0.010940908
-0.042088177
-0.03463695
0.00901269
-0.03497648
-0.007273896
0.024460617
-0.034923147
-0.020562869
0.007492975
0.0
-0.03809847
0.052818123
0.040333025
-0.016767055
-0.034484204
0.04388224
0.02511972
0.05150492
-0.043619446
0.013255794
-0.035223756
0.038240924
0.019414991,-0.29111746,0.06197071,-0.393362,0.1393039
-0.19607222,0.12198576,-0.27004778,0.3816615,0.34639928
-0.03954404,0.3170249,-0.28267634,-0.06411806,-0.10543467
-0.057565592,-0.3171806,-0.29745686,0.0031109282,-0.10102404
-0.35250092,-0.37902668,0.11324361,0.2118117,-0.013338453
0.15309049,-0.33241737,-0.17603007,0.04224744,0.28290078
-0.0071831085,-0.22717732,0.035725903,-0.14177686,0.015876956
0.00784836,-0.18452068,0.4134214,0.3289324,0.2922743
-0.04134123,0.32630748,-0.1591626,0.18804634,0.42816246
0.14601858,0.07002871,-0.15727095,0.3759039,0.03885127
-0.12362696,0.26124832,0.19874598,-0.016022177,-0.09094033
-0.116100125,0.098757505,-0.17595732,0.09497535,-0.00021406513
0.24737887,0.3427001,0.43333775,0.19775313,-0.0655205
0.18058288,0.34059685,-0.023463737,-0.35096106,-0.34580758
0.20554648,0.2824439,-0.05446289,0.054278757,-0.05515984
-0.081936315,0.20484647,0.036667757,0.2562581,0.34660003
0.2965812,0.09671788,-0.027266689,-0.16566102,0.28587154
0.004175633,-0.23949759,0.27715507,-0.34186924,0.3060592
-0.24169365,0.10967675,-0.06272989,0.04064765,-0.042815935
0.12592301,-0.24879642,0.32484722,0.24509273,0.3061968
0.25126982,0.22575909,0.24779567,-0.07226409,0.30807716
-0.058131237,0.048970137,0.3032107,0.23227957,-0.30487835
-0.11922545,0.09513079,0.14823154,0.2628216,0.013322459
0.04882084,0.2073534,0.013214321,-0.21970665,0.01978917
0.14528567,0.12649275,0.21307823,-0.3397425,0.07058664
0.21889609,-0.12233912,0.13682169,-0.27496207,-0.03994563
0.02107736,-0.03598591,-0.29867673,0.033973232,-0.26409104
-0.38391924,0.24485892,-0.1012667,-0.2550773,-0.31325755
0.04279929,0.14856991,-0.115274616,0.33423433,-0.15226123
-0.18572031,-0.31473717,0.07276289,0.13878295,-0.2812406
-0.104433
-0.04085176
0.044093613
-0.03953424
0.050817918
