0.01250815,-0.28391516,-0.11078135,-0.35724467,-0.041455753,0.23479569,-0.021691266,0.02050942,0.2240737,-0.09598493,0.266165,0.2394881,0.30497995,-0.04245779,-0.30608657,-0.22195956,0.17993018,-0.14917034,0.27612662,0.21265487,-0.16401763,-0.21946344,-0.18440907,-0.2705058,-0.09489993,-0.09804907,-0.17436306,-0.2154582,0.07414135,-0.03344393,-0.18935092,-0.03554065,-0.31348675,2.2381217e-05,0.30502254,-0.1481495,-0.19482452,0.18453649,0.06471523,0.12676585
0.14538445,-0.0155414045,-0.012115239,0.09535637,-0.10180567,0.11644131,-0.07147711,-0.28753364,0.37277937,-0.22266474,-0.060769457,0.22853668,-0.14041486,0.18445373,-0.33652166,0.19339716,0.007376461,0.21988267,0.2675782,0.011795669,0.25868988,0.32846725,0.34606257,0.08698179,0.052417185,0.10462743,-0.025271198,0.28641805,0.2885288,0.14152737,-0.10304236,0.3097128,0.07099228,-0.005650045,-0.058713682,-0.33087558,-0.20085308,0.08957235,-0.3060433,-0.26226538
-0.17083804,0.09613383,-0.19638693,0.03838699,-0.3117418,0.116641834,0.21752957,0.12282777,-0.24888922,-0.13933651,-0.11398122,-0.25449845,0.11099843,0.16877086,-0.21884497,0.108357176,-0.40162337,-0.19699576,0.31036478,0.32996795,-0.2990945,0.00044678088,0.32377738,0.07825107,-0.3568346,0.24493591,0.083189644,0.35277817,0.076765165,0.13588175,0.14857042,0.038158506,0.32979175,0.22058056,0.18614092,-0.19375163,-0.35689828,-0.35511413,0.015473104,0.18596402
-0.27693093,-0.053423166,0.015302111,0.07241607,0.13231961,0.09426243,0.23611046,0.07902207,-0.12734982,-0.30180845,-0.18339929,-0.0005268443,0.25526306,0.06750045,0.14195704,-0.23402613,-0.29812422,-0.15857655,-0.22933508,0.1398603,-0.2966825,-0.048790462,0.05043968,-0.13783766,0.14097902,0.011405504,0.19736703,0.09313053,0.25791636,0.037495736,0.33403865,-0.078476116,0.07327754,-0.13197954,0.030512111,0.089081936,0.3085291,-0.11835415,0.17548238,-0.33282673
0.1454205,0.0052740574,-0.35343593,0.33282843,0.11685357,-0.25303507,-0.06232008,-0.30342385,0.37464637,-0.07130577,0.2590201,-0.24328977,-0.15404692,0.055689283,0.23651859,-0.1305167,-0.23454079,-0.014358723,-0.2654883,-0.16331491,-0.28819007,0.08243478,-0.23874946,-0.26865354,-0.19866535,-0.02168402,0.3420842,0.21339557,0.16981763,0.24937138,0.22380003,0.2683118,-0.2455573,-0.06417752,0.19647065,0.23943551,0.28413418,0.110664025,-0.1906784,-0.076601505
0.31967548,-0.02730462,-0.33305332,0.2810891,-0.01633865,0.29378444,-0.2562247,-0.005271356,-0.1399058,-0.016613947,0.101354524,0.021284657,0.054949984,-0.08989155,0.18136212,0.17883486,0.12277885,-0.24750093,-0.11883701,0.053200204,0.2644187,-0.20878848,0.12059,-0.2851093,-0.2818072,0.1163162,0.15992166,-0.08104459,0.26635718,-0.2588836,0.31691206,0.09532743,-0.0836308,-0.08491333,-0.19151887,-0.24139479,-0.14292479,0.05718991,0.07652818,-0.14986725
-0.03175901,-0.11047362,0.10116863,-0.20837885,-0.3151533,0.073917225,0.016173925,0.2364683,-0.139934,0.34969345,0.031809825,-0.026065238,-0.26869702,0.30065066,-0.061228577,0.0068527805,0.23476478,0.0047239778,0.11820635,0.16653816,0.03523652,0.2340494,0.13650031,-0.16726232,0.09583831,0.18896064,-0.025971746,-0.1680757,-0.14349946,-0.04906657,0.21666159,-0.17464335,-0.13649482,0.26126602,0.085826255,-0.33724916,0.07502265,0.15448067,0.08145242,0.09119572
0.054286133,0.059706748,0.17533283,0.35301647,0.19750719,-0.25498626,0.30139795,-0.12557237,0.10846577,-0.2977048,-0.26115632,0.1782034,0.16734613,0.047267295,-0.025226938,0.23089477,0.01223623,0.095318556,0.11992356,-0.21265881,-0.19928765,-0.3309164,0.28402016,0.24670705,0.2628604,0.32354644,-0.3146483,0.020411592,0.13193543,0.17162293,-0.034091778,0.03597294,0.21180293,-0.0012810417,0.16691649,-0.057061937,-0.08069071,0.05053188,-0.09064291,-0.0046481295
-0.20245357,-0.31610957,0.23837441,0.23869379,0.16566083,0.10025251,-0.004477282,0.024314273,-0.02244062,0.2705245,-0.25290525,-0.24357787,0.31478488,0.11623009,0.035426676,-0.12668698,-0.39724916,0.04327381,0.07231887,0.04956323,0.07710354,0.24934618,0.1691091,0.17127016,-0.08089632,0.18619695,0.015114512,-0.083115935,0.28029424,-0.2979901,0.19571495,0.26930752,-0.24700399,-0.027490474,-0.23036233,-0.08523225,-0.11241421,-0.1783474,0.16116454,-0.11030362
-0.26035324,-0.2625966,0.25071377,0.11884104,-0.303064,0.32376277,0.03439255,-0.21562117,-0.12583286,0.30021632,0.18904886,-0.24585664,0.042134486,-0.17418686,-0.3371536,-0.2006069,-0.11596872,-0.19024958,0.2841936,0.30435202,0.24777615,-0.25942403,0.2216886,-0.05871531,0.016971607,0.18422493,-0.32976845,0.23903483,0.14896464,-0.04944984,-0.06642273,-0.049137108,-0.23673876,0.12768586,0.065774396,-0.26969743,0.24347174,-0.25479457,0.19360541,0.11750641
-5.2215473e-06
0.0
-0.011953409
0.017295629
-0.026320243
0.012538612
0.025292296
0.08771606
0.030026134
0.02163282
-0.020192934
0.0039606416
-0.0072209123
0.022182027
-0.04144928
-0.007559518
-0.05785131
-0.01819102
0.019758468
0.023076996
0.016307937
0.07521057
0.023770774
-0.03442147
-0.02176428
0.023214793
0.00088111334
0.023514884
-0.022700824
-0.024216482
0.02352002
-0.023120696
0.007819321
0.02444159
0.019566773
-0.025006877
-0.02444957
-0.01973178
0.008274763
-0.011442038
-0.19454941,-0.16155459,-0.008515512,0.28063864,-0.39069107
-0.21388248,0.21063852,0.062782854,-0.092746526,0.24187809
-0.11149083,0.04557859,-0.150463,0.30598786,-0.0011738862
0.04859615,0.33761686,-0.10493779,-0.30947658,-0.21157035
-0.2854689,0.04234787,-0.027438369,-0.07028815,0.033699166
-0.16947031,0.2644418,0.1305856,-0.15801023,-0.052750576
0.39078578,-0.16725121,0.26928225,0.18300419,-0.12472952
-0.23506413,0.16907358,0.020327605,-0.1441046,0.071163595
0.030661954,0.37699458,0.17727944,-0.1543008,-0.21005563
-0.06280477,0.18702957,0.32589847,0.1970339,-0.3600393
0.30202562,-0.33823052,-0.027366754,0.22958615,0.14604008
-0.23450133,0.33543453,-0.012494159,-0.23867947,0.27251956
-0.22067602,0.17626162,-0.2884849,0.17184398,-0.27057096
-0.0028670765,0.27868104,0.24878553,-0.2540142,0.1344869
-0.3022744,0.0025824292,-0.09067064,-0.28894985,0.0017548789
0.025101125,0.061754268,-0.17342222,0.19601518,-0.106941275
-0.030515084,-0.32508785,-0.2689176,0.22769748,0.07944463
0.1875802,0.2458585,-0.31844553,0.33737308,-0.03391477
-0.06326813,0.2644061,0.05881478,-0.16032033,-0.12011236
0.18247645,0.06934094,0.0028779928,0.14860123,-0.18912946
0.020892646,0.052194152,0.11057694,-0.14615743,-0.2566696
0.11194101,-0.14738005,0.2982418,0.2870128,-0.24608831
-0.1905013,-0.33957702,0.3695112,-0.10255267,0.10732054
0.12621534,-0.094194,-0.02269164,-0.08159566,0.11869731
0.24069227,-0.0779622,-0.18719484,0.08817475,0.15866882
0.25671098,-0.07003579,-0.081356965,0.3451114,-0.26516032
-0.09194966,-0.124993406,0.0123820165,-0.07848275,-0.13556466
-0.24106137,-0.20867662,0.38586217,-0.3130011,-0.29306406
0.010464085,-0.17654854,-0.20394494,-0.09026706,0.30818695
-0.26308906,0.0033391248,-0.2779394,0.2027787,0.321204
-0.33191487,-0.23789516,0.32272175,-0.3253814,0.0031042213
0.050890807,0.10460211,-0.3363459,0.0033887986,0.3362495
0.24783272,-0.32815412,0.31374842,-0.3082395,0.18765855
0.17637047,-0.15218812,0.3292436,-0.3354144,0.23498897
-0.013898474,-0.14263308,-0.1696041,-0.23436493,-0.22690907
0.034739345,-0.1999362,-0.18351518,-0.20701167,0.2811451
0.19853562,0.09652848,-0.051201563,0.21431752,0.29427198
0.09832141,-0.03234785,0.13769601,-0.0639515,0.33448905
-0.23458207,0.24434206,0.2726983,-0.27826846,0.062447764
-0.41862607,0.09559762,-0.13483499,0.03989207,-0.04853601
0.018473374
0.009815692
0.02332168
-0.008135263
-0.022575354
