-0.27653366,0.32875448,0.047620747,0.20248787,-0.30725002,-0.25038758,-0.21930341,-0.16700752,-0.2684162,-0.059234004,-0.041257735,-0.28619,-0.23833998,-0.012633804,0.03924116,-0.010432923,-0.17566769,0.005953152,0.23396415,-0.12593861,0.14746241,0.2413986,0.08150237,0.25014368,-0.19839406,-0.14672108,-0.345085,0.09358269,-0.13965432,0.22139521,0.27936077,-0.27380356,0.007826894,-0.24694791,-0.34734932,-0.32953638,-0.23955421,0.013293503,-0.10897432,0.30264166
0.20769091,-0.30919358,-0.3224502,0.20740941,0.1248305,-0.065273054,-0.34599647,-0.16109823,-0.025319397,0.14561716,-0.062807806,0.24924079,0.32510257,0.21336104,0.06612827,0.22491594,-0.24433112,0.052874472,0.26331228,-0.33328503,0.026261838,-0.11054493,-0.13978554,0.20082207,-0.11318378,0.34381098,-0.068331145,-0.19966885,0.2249775,-0.19564156,-0.34526852,0.29361165,-0.26344267,0.05857766,-0.015715122,-0.012603995,-0.1581971,0.24027987,-0.080834575,-0.0039013238
0.24250913,0.28131324,0.30832547,-0.24256502,0.23786646,0.16510276,-0.07928406,-0.22297071,0.24236095,0.31370097,0.117456906,0.13913761,-0.23177534,-0.16682751,0.15464446,0.34844446,0.053734347,0.20361316,-0.30626595,0.12279159,-0.29934517,-0.16037226,-0.2688901,0.26016134,-0.21891354,-0.012034118,0.06313395,0.1053783,0.07261068,-0.2598363,-0.21486758,0.2364353,0.07003852,0.00024295959,-0.1454363,0.14941844,-0.2075017,0.17822269,-0.10774116,0.09797623
-0.31444526,0.07832258,0.28650406,0.21875542,-0.037050366,0.29284602,-0.289637,0.008361174,-0.30998752,-0.27441916,0.2216115,-0.20216165,-0.30664384,-0.37892717,-0.1164676,0.29033655,0.22888304,-0.1859428,-0.23446292,0.055160675,0.122311406,0.11226023,0.28058204,0.33610785,0.0057438905,-0.3449307,0.00760898,-0.13449761,-0.32113042,-0.33064097,0.2805425,0.22960849,-0.13077088,0.34005222,-0.2524126,0.27542657,-0.32906628,-0.1883063,-0.2040729,-0.22209606
-0.26806694,-0.06529987,-0.3126938,0.34017342,0.30344322,0.28184375,-0.25004306,0.11963497,-0.31901294,0.24908036,0.16124326,-0.28572205,0.07386482,-0.20367472,0.05212366,-0.16120175,0.111827224,0.06290977,-0.09642889,-0.3319328,-0.13284609,0.20252092,-0.18837301,-0.045877025,-0.18884829,-0.07295823,-0.095745355,0.06320646,-0.103009924,0.23341773,0.047257185,0.23298496,-0.21472083,-0.025531737,-0.06727133,0.337402,0.24177073,-0.16684398,0.26618084,-0.066204004
0.34134305,-0.09497792,-0.051428977,0.3352435,0.13439052,-0.11561486,0.35319978,0.24300127,-0.24571402,0.03937445,0.3185157,0.16473787,0.22506133,0.06105704,0.19992863,-0.15889554,-0.2325742,-0.20783633,0.23775092,-0.16869003,0.18329108,-0.31635308,-0.20376234,-0.17060019,0.14994015,-0.020607173,-0.04032791,0.06553897,0.14314185,0.073076285,-0.32597014,0.19386023,-0.34047744,-0.033050034,-0.18776685,0.08186869,0.020459196,0.24980421,-0.092010096,-0.027522234
0.12686041,-0.27425337,0.32684782,-0.05906264,-0.21782307,-0.14332683,0.30488914,0.3207172,-0.13019477,0.23051542,-0.23527762,-0.0526179,0.35171232,0.25065073,0.31242603,-0.16195689,0.3187988,0.32292292,0.09925697,0.07542029,-0.2351324,-0.08068017,0.04577644,0.09197975,-0.14210367,-0.34262097,0.054552805,0.07550983,0.14629519,0.24122065,-0.07964635,-0.012798593,0.22519101,0.19485404,-0.20801128,-0.052442286,-0.37682962,0.22547905,-0.3582832,-0.13865803
0.051131483,0.38303035,0.034796685,-0.14217374,-0.08619238,-0.30854818,-0.03583917,0.18087836,-0.087349236,0.07012609,0.27650714,0.24562743,0.13761072,0.22142836,0.3092165,0.22352809,-0.18029013,0.19872886,0.11090943,0.19496238,-0.006262087,0.17035933,0.17360295,-0.028664175,0.3217311,-0.090709776,0.29940432,0.31694216,-0.237761,-0.15788674,-0.29984143,-0.2608675,-0.061384186,0.36047742,0.31555226,-0.1920532,0.22106066,-0.19259366,-0.16859235,0.2976491
0.11590852,-0.28888518,-0.3239014,-0.026380045,-0.17691742,0.2778666,-0.03308939,-0.012878891,0.012616694,-0.17847463,-0.32191214,0.053779677,-0.18075745,-0.21274303,0.21299933,0.14796546,0.16996191,-0.20394166,0.25220284,0.10718036,0.27124637,0.02720467,0.24852723,0.30992445,0.31293312,-0.30770513,-0.11365395,-0.26990747,-0.070263475,0.17047615,-0.12655963,0.00034423845,-0.120991,-0.20652613,0.036502987,-0.27303448,-0.20907854,0.08629608,-0.16064231,-0.23532186
-0.043447908,0.017359361,0.18840338,-0.11601251,0.268503,-0.1153991,0.083031096,0.09773791,-0.23030055,0.33274415,-0.24589247,-0.13622224,0.31138468,-0.2858436,0.17560086,0.13895187,0.13976046,-0.3138037,-0.16948783,-0.23414834,-0.059840344,0.056580354,0.34710982,-0.032819588,0.3031227,-0.08251405,0.254944,0.12291689,0.16629052,0.03233709,0.30700195,0.07265745,0.2824613,-0.15071793,0.02037773,0.036893986,0.15687382,-0.12193516,-0.31660154,0.27067593
-0.005107557
0.033097908
0.014897258
0.02378735
-0.024303675
-0.02241538
0.030567296
0.018732777
0.0
0.016742488
-0.025145113
-0.030238697
0.0154259475
0.00399629
-0.019311914
0.02095222
-0.02144974
0.021888668
0.015946064
-0.017431047
0.029886736
-0.00672865
0.0074459254
0.01664956
-0.018540911
0.0
-0.024118353
0.022831243
0.040149495
-0.015843682
0.0
0.030073553
0.03000165
0.03291419
-0.0025673746
0.01320674
-0.03422079
-0.01827573
-0.038017225
0.040929455
0.1362381,-0.21594045,-0.19588041,-0.036001615,-0.2992863
-0.21794263,0.147457,0.22535737,0.23630632,-0.08742065
-0.049493704,0.14565265,-0.01523248,-0.28472456,-0.2883042
-0.27308017,0.04291835,0.10287593,-0.103229344,0.22794165
-0.11747343,-0.31714478,-0.3306612,0.30262643,-0.19311243
-0.15306175,-0.26816845,-0.32301882,0.26927438,-0.3625827
-0.014462881,-0.2916697,0.11769584,0.29682517,-0.25242415
0.07631719,0.094249025,0.16903573,-0.22652684,-0.22878699
0.2801031,-0.2610907,0.26636398,0.33319783,-0.06962633
-0.33317655,0.015083759,0.35522792,-0.34884703,-0.32709804
0.06191615,-0.18414825,0.12810951,0.21906962,-0.092147246
-0.237346,-0.32310438,-0.24140584,-0.124037325,-0.004970539
0.3261115,0.1803093,0.3064655,-0.08526539,-0.20169152
0.24436912,-0.2121699,-0.14583126,0.07719892,0.15348046
0.09636534,-0.18151529,-0.2723961,0.21460246,0.078182645
0.3392307,0.17832245,0.32582155,-0.050509937,0.0030396653
0.15280773,-0.19191636,-0.011509115,0.32571656,-0.17764291
-0.23208548,0.25308096,0.17564642,-0.13507876,0.01578322
0.08139058,0.053510822,-0.21777011,-0.1925226,0.07288617
0.14592306,-0.3486718,-0.13939081,-0.020695318,0.011443704
0.3061963,0.1484486,0.025668327,-0.25382245,0.022391656
0.17908712,-0.233198,-0.31801036,-0.29244503,0.1952832
-0.2299106,-0.10783751,0.3693043,0.01379787,-0.2321092
-0.30511656,-0.17356268,0.19162153,-0.18231465,0.23590669
-0.20594594,-0.30913448,-0.26835534,0.22569002,0.2175449
-0.018016517,0.09541443,-0.20579085,-0.06446603,-0.32748798
-0.1714992,-0.16684228,0.19104666,0.24386439,0.023882385
0.31763718,-0.03879039,-0.14337558,-0.31656358,-0.37676552
-0.21189928,-0.26347566,-0.32981122,-0.0879649,-0.093229994
0.26929942,0.35996932,0.34106576,0.1805161,-0.34796935
-0.27069384,-0.13872011,0.19212735,0.15853184,-0.0722149
-0.177698,0.30792433,-0.07657818,-0.104709916,-0.08336347
-0.26868042,-0.2234469,0.27167845,-0.02794948,0.14458948
-0.19108959,0.33474666,-0.27729812,-0.30765474,0.12318634
-0.29908717,-0.2931689,0.34962875,0.0025026028,-0.2583762
0.22025745,0.28730473,0.11995564,0.05787624,-0.08872476
-0.31196433,0.026867531,0.07082007,0.10179287,-0.28584936
0.031205753,-0.011405944,-0.18700212,0.055294678,0.016578084
0.0050171535,-0.33020854,0.2015843,0.26452515,0.22983396
0.35380444,0.2001431,0.025552316,0.101733215,-0.23357086
-0.01562997
0.03509574
0.0123758605
-0.021531483
-0.0098789185
