0.22285277,-0.004529506,-0.30039364,-0.12416049,-0.353055,-0.23849384,-0.1110956,0.041125372,0.056269936,-0.18048942,0.12880298,0.17440471,-0.057715565,0.035318207,-0.25462654,-0.0064590774,0.20963888,-0.10400475,0.12880473,-0.20751832,0.25222158,-0.27404243,-0.31515247,-0.04091501,0.35459444,0.25646618,0.07354727,0.34688625,-0.11737735,-0.19520083,-0.19939725,0.30941787,-0.20167162,0.08772832,-0.03631801,-0.29214978,0.10085071,0.19940417,-0.019745562,-0.34640765
-0.2797109,0.04078728,-0.18767193,-0.035706926,-0.25806925,-0.13388447,0.06343833,-0.066408284,0.15717627,-0.2791825,0.10359924,0.33380854,-0.31651407,-0.07221172,-0.0069778264,0.0011371574,0.24813263,-0.25589162,-0.18042868,-0.22723025,0.17335601,0.11363026,0.25428683,0.37631756,0.22519459,-0.18805675,-0.18935059,-0.3605814,0.20405029,0.2548664,0.17049024,0.26738507,-0.07368565,0.21721959,0.006316058,-0.19331284,-0.2454831,-0.35509172,-0.08267614,0.15728977
0.08757049,-0.2926525,-0.25839803,-0.1623729,0.32817343,-0.31283858,0.1907462,0.253692,-0.0189031,0.026365135,0.116294876,-0.13928883,-0.15035522,-0.087995924,-0.1655595,0.28337646,0.063849084,-0.31113636,-0.17748798,0.32578856,-0.31599802,0.15105005,-0.29888403,-0.25330728,-0.29808238,0.004095141,-0.18415639,-0.19371498,0.041904453,-0.015893452,-0.10294448,-0.28999782,0.066586256,0.26508433,-0.2654697,0.30183107,-0.14713539,-0.096447475,-0.26148227,0.16863096
0.065197855,0.054949433,-0.23695058,0.29320285,0.061736308,0.10657658,-0.1071364,-0.2690915,0.063689224,-0.018626427,0.16953331,-0.012847155,0.052358568,0.16761714,-0.25556767,0.36969823,0.2492495,0.19239372,0.3125057,-0.005605526,0.06428897,-0.22653864,0.10204025,-0.1984588,-0.3210067,-0.311854,-0.16923557,-0.31913358,-0.06200611,-0.22139144,0.124717325,-0.29532623,0.28565788,-0.0011960864,0.010808373,-0.28585562,0.3575044,0.3099502,-0.15822102,0.16475898
-0.28274938,-0.1958667,-0.28749448,0.039508108,-0.036963798,0.23821466,0.30156687,-0.19872592,-0.08882947,0.345811,-0.20797688,0.14233041,-0.18257448,0.117672406,0.052086264,0.22140664,-0.351542,0.3082662,-0.0419235,-0.24645661,-0.2518735,0.13883103,0.042528823,-0.21987242,0.270881,0.22607315,0.32754278,0.11229678,0.0017585044,-0.22117329,0.0064888345,0.072580084,0.016753197,-0.12527874,0.33828038,0.011588037,0.08678404,-0.21452102,0.0018445433,0.08441332
0.09019646,0.012884557,0.29049855,0.2613731,0.20552997,0.27170274,0.3222419,-0.36421138,-0.33663774,0.28484306,0.2509496,0.23995067,0.12935203,-0.21145174,0.062474012,-0.07178771,0.12946986,-0.31544903,0.10161753,0.11646442,0.15687469,0.14911437,-0.20017421,0.15554145,0.33627433,-0.06223934,0.3537161,-0.03329116,0.16400504,-0.29388088,-0.050502528,-0.016845146,0.24687152,-0.326449,-0.15668431,-0.02641654,-0.10209114,-0.29912052,0.022528483,0.14141499
-0.29415193,0.15944177,0.18101457,0.15775903,-0.13246071,-0.29366392,-0.16454704,0.024859486,0.13393317,-0.014767919,-0.25405756,-0.31157538,-0.17316237,0.21366526,-0.049993664,-0.093274914,-0.26349652,-0.10993488,-0.13053367,0.080985084,-0.041333623,0.11774477,-0.20056851,-0.022427907,-0.027142962,0.0072350954,-0.21289909,-0.09670112,-0.14315757,0.21174692,0.23762865,0.042274162,-0.2666467,-0.32645372,-0.15103361,-0.24866408,-0.11956298,0.005287076,0.13068676,-0.037260823
-0.2792895,-0.24895835,0.062247097,0.2555132,0.046890613,-0.3204628,0.03285856,0.1783936,-0.20382264,-0.17580685,0.14832292,-0.08084249,-0.32115304,-0.21186003,-0.33169144,-0.26503077,-0.29924145,0.28280833,0.17788406,0.1201624,-0.20472884,-0.22208883,0.20476682,0.16855697,0.29857653,-0.06389582,0.10056012,-0.14651154,-0.084116824,0.1592637,-0.33213982,0.21760564,-0.07277904,-0.29995465,-0.16492632,-0.18958172,-0.0100181,0.24522601,0.3023291,0.12088667
0.15403134,-0.3382369,-0.3848628,-0.14698744,-0.30826908,0.2030226,-0.1650853,0.087799914,0.19613542,-0.2432701,-0.15157638,0.28034574,-0.16878904,-0.17129697,-0.31748113,-0.26812226,0.28952846,0.3449299,0.00024770165,-0.11734704,0.18860054,-0.0869797,0.023162998,-0.30382955,-0.004142172,0.07953249,0.16950515,0.013559017,-0.059503097,0.29779354,-0.17507483,-0.28653473,0.06750804,0.18772316,-0.24618104,-0.18741305,0.028845342,0.13235821,-0.05068759,-0.33622193
-0.34022355,-0.31653085,0.14555275,-0.1653079,0.07778795,-0.2857848,-0.010196199,0.069679126,0.00023701586,-0.17543036,0.08130937,-0.21543844,-0.3170412,0.16012664,0.23995662,0.07351946,-0.11271753,0.116546005,-0.14208405,0.16250694,-0.036453802,-0.30929503,0.06427056,0.09157213,-0.33116257,-0.008638153,0.16708136,0.17008117,-0.22274533,-0.14847834,-0.2456499,0.24281456,0.1394156,-0.28541055,0.3278894,-0.3070897,0.16928802,0.18161756,0.34189072,0.19725178
0.0
0.0
-0.052492965
-0.0368046
-0.022868099
-0.013113233
0.043413002
-0.012613446
0.034929678
0.12839854
0.03349338
0.037240013
0.0
0.17500594
0.0
0.034697656
-0.0055486374
0.022368375
0.016154354
-0.021610556
-0.037908122
0.008713377
-0.033150718
0.03213901
-0.021410802
0.015817782
0.028147677
-0.035744544
-0.04240007
0.008875952
0.039163448
-0.023739982
0.03048475
0.0
0.032781348
0.0
-0.03638327
-0.023003161
0.0150179425
-0.01675307
-0.3175756,0.20741022,0.07167393,-0.23643959,-0.29436487
-0.09024814,-0.07698682,-0.25855184,0.20853674,-0.04447183
0.30035034,0.058730446,-0.17306718,0.25225133,0.12408289
0.021793699,-0.38913596,0.0029200572,-0.29444876,0.30929902
0.12275742,-0.12153828,-0.29355958,-0.3620221,-0.262739
-0.2295814,-0.12066435,0.086949944,0.1784536,0.18656814
-0.30754548,0.098138936,0.17816956,0.0098224925,0.2781425
0.21222973,0.26245102,-0.020987278,0.19816887,-0.0073543205
-0.4165602,-0.2297071,0.10113155,-0.23398724,0.24180561
0.035856348,0.23504192,0.0646635,-0.32431647,0.036901426
-0.32033977,0.11117911,-0.068074256,0.060729593,-0.16002756
-0.3476873,0.045003943,-0.23903123,-0.3371795,-0.2861115
0.110842794,-0.07766554,0.14713567,0.21633637,0.2627201
-0.055917844,0.2519269,-0.17762282,-0.111909956,-0.097346865
-0.26857424,-0.069045395,-0.07480854,-0.27584857,-0.2844689
-0.29358014,0.10297397,0.06825308,0.26175413,-0.37673438
-0.051783387,-0.104506895,-0.25145045,-0.10051709,-0.07382299
-0.091494516,-0.2916917,0.19167744,0.08831011,-0.27555037
0.28726363,-0.20532726,0.31750098,0.33433038,-0.19311865
0.2615816,-0.38098806,0.029558208,-0.32565174,-0.12385883
0.1879406,-0.23547168,0.37195873,0.2386688,0.14967857
0.004474783,-0.14804763,0.23332798,-0.023014557,-0.06691642
0.26605514,-0.25939953,0.01199387,-0.3413349,0.26567805
-0.23453842,0.13343683,0.3576461,0.08561987,-0.22659056
0.31773278,-0.062471975,0.21452925,0.21743792,-0.33838803
-0.16866115,0.07473434,-0.20696248,-0.3560938,0.17910989
-0.3442279,-0.09673933,0.09618343,-0.25614434,0.16828272
-0.16299899,-0.1588736,-0.27239463,-0.11222039,0.1079627
0.122826576,-0.2536612,-0.24723358,-0.15142442,-0.043414295
-0.10195338,0.019795503,-0.028592855,-0.22242592,0.050781645
0.09677049,0.08765894,-0.25986964,0.060284376,-0.3804696
0.14768012,0.21393315,0.1505859,-0.17268181,0.068009965
-0.06455707,0.23910205,-0.2366114,-0.16743991,-0.31086692
0.0047755837,0.3602658,0.032254696,0.16228735,-0.29996216
-0.06662707,-0.033378948,-0.26656264,0.31586665,-0.30258656
-0.21971798,0.20717639,0.17244607,0.29409635,0.07650375
0.16676795,-0.325371,0.37441283,-0.12231718,-0.064096436
-0.045277987,0.2679529,0.010088704,0.31220347,0.11909152
0.19193795,0.1345554,0.34543204,-0.3841864,-0.23782912
-0.09239769,0.15441759,-0.038649578,0.035755232,0.20086235
-0.03662592
0.022668172
0.024176868
-0.02907181
-0.026757866
